SVM-light Version V6.02
0 # kernel type
1 # kernel parameter -d 
0.1 # kernel parameter -g 
1 # kernel parameter -s 
1 # kernel parameter -r 
empty# kernel parameter -u 
304 # highest feature index 
400 # number of training documents 
95 # number of support vectors plus 1 
-0.49202769 # threshold b, each following line is a SV (starting with alpha*y)
-0.21766389396200997 86:1 157:1 #
0.12532620624247137 1:1 4:1 5:1 14:1 31:1 186:1 #
-0.10576505476024856 12:1 25:1 62:1 155:1 156:1 #
-0.37176191784670254 8:1 152:1 153:1 154:1 #
-0.058190515228194573 81:1 141:1 144:1 145:1 146:1 147:1 148:1 149:1 150:1 151:1 #
0.035773616941170025 1:1 4:1 11:1 17:1 41:1 42:1 48:1 80:1 155:1 161:1 171:1 197:1 198:1 202:1 203:1 204:1 205:1 206:1 207:1 #
0.024774076846756136 1:1 4:1 11:1 25:1 36:1 37:1 89:1 110:1 114:1 119:1 120:1 130:1 158:1 180:1 181:1 182:1 183:1 #
0.13304643890766257 1:1 4:1 11:1 14:1 28:1 41:1 42:1 48:1 88:1 97:1 197:1 198:1 199:1 200:1 201:1 #
-0.33922050122186287 1:1 4:1 16:1 23:1 41:1 42:1 43:1 45:1 48:1 49:1 59:1 #
-0.042765732603089496 1:1 4:1 16:1 17:1 41:1 42:1 43:1 103:1 104:1 105:1 #
-0.07259709131335057 1:1 4:1 12:1 16:1 17:1 41:1 42:1 43:1 85:1 88:1 89:1 90:1 91:1 92:1 93:1 94:1 95:1 96:1 #
-0.12653669293986569 1:1 4:1 28:1 107:1 108:1 #
0.048229798172781946 8:1 81:1 228:1 230:1 233:1 #
-0.05222250616111096 1:1 4:1 12:1 16:1 29:1 41:1 42:1 43:1 62:1 68:1 97:1 98:1 99:1 #
0.10584749019260006 8:1 12:1 152:1 214:1 273:1 274:1 #
0.095982344905227709 8:1 104:1 152:1 193:1 279:1 #
0.029059576424327112 8:1 141:1 144:1 241:1 260:1 261:1 262:1 #
0.064410259058144084 8:1 152:1 153:1 154:1 155:1 171:1 230:1 247:1 255:1 263:1 264:1 265:1 266:1 267:1 268:1 #
-0.11409500281055943 1:1 2:1 3:1 4:1 5:1 6:1 7:1 8:1 9:1 10:1 11:1 14:1 #
-0.063644991154505143 1:1 4:1 9:1 15:1 17:1 18:1 19:1 20:1 21:1 22:1 64:1 160:1 161:1 162:1 163:1 164:1 #
0.031352940417940289 1:1 4:1 16:1 17:1 28:1 41:1 42:1 43:1 48:1 88:1 89:1 90:1 91:1 92:1 95:1 96:1 188:1 189:1 190:1 192:1 #
0.028588647649035764 1:1 4:1 16:1 41:1 42:1 43:1 48:1 88:1 89:1 90:1 91:1 92:1 96:1 129:1 188:1 189:1 190:1 #
0.028467509536764191 1:1 4:1 12:1 16:1 29:1 32:1 41:1 42:1 43:1 48:1 62:1 97:1 191:1 196:1 #
0.0096547622034727811 1:1 4:1 16:1 28:1 41:1 42:1 43:1 48:1 62:1 97:1 111:1 112:1 117:1 188:1 191:1 195:1 #
-0.1009905153851918 1:1 4:1 5:1 28:1 41:1 42:1 61:1 #
-0.079063012982423075 1:1 4:1 12:1 16:1 29:1 31:1 41:1 42:1 43:1 62:1 68:1 78:1 79:1 80:1 81:1 82:1 #
-0.05550924639793095 1:1 4:1 13:1 16:1 29:1 41:1 42:1 43:1 62:1 97:1 98:1 99:1 #
0.0077746431559589093 1:1 4:1 16:1 29:1 32:1 41:1 42:1 43:1 48:1 88:1 89:1 90:1 91:1 92:1 96:1 185:1 190:1 #
0.059714215955710151 8:1 80:1 95:1 107:1 152:1 153:1 286:1 290:1 294:1 #
1 1:1 4:1 5:1 13:1 31:1 186:1 #
0.030191344287401223 1:1 4:1 12:1 16:1 29:1 32:1 41:1 42:1 43:1 88:1 89:1 90:1 91:1 92:1 96:1 187:1 #
0.036706816891840327 238:1 243:1 283:1 284:1 285:1 286:1 287:1 288:1 #
0.043907526798175528 1:1 4:1 12:1 16:1 17:1 41:1 42:1 43:1 57:1 62:1 68:1 79:1 80:1 83:1 84:1 85:1 86:1 87:1 #
-0.013406281062027089 1:1 4:1 9:1 30:1 31:1 32:1 33:1 115:1 #
-0.021810741901106337 1:1 4:1 11:1 25:1 32:1 110:1 114:1 119:1 120:1 122:1 #
-0.021873947609613097 1:1 4:1 11:1 25:1 32:1 110:1 114:1 119:1 120:1 121:1 #
-0.088182944069519431 36:1 37:1 38:1 39:1 40:1 #
0.046736953753844686 16:1 62:1 95:1 141:1 171:1 239:1 240:1 241:1 242:1 #
0.18365301141173529 1:1 4:1 16:1 29:1 32:1 41:1 42:1 43:1 48:1 62:1 97:1 174:1 175:1 176:1 177:1 178:1 179:1 191:1 #
0.17440910533113285 251:1 290:1 #
-0.20804933728186276 13:1 32:1 48:1 62:1 174:1 175:1 176:1 177:1 178:1 179:1 #
0.093246255352623694 1:1 4:1 5:1 31:1 97:1 135:1 #
0.059131134433410365 8:1 119:1 291:1 292:1 293:1 #
-0.10104521019535212 1:1 4:1 5:1 28:1 41:1 42:1 60:1 #
0.010003133977381578 1:1 4:1 12:1 16:1 28:1 41:1 42:1 43:1 62:1 68:1 123:1 124:1 125:1 #
0.20402399757772013 234:1 235:1 #
0.018999803514412536 152:1 171:1 230:1 247:1 269:1 270:1 271:1 272:1 #
0.05447971965646168 8:1 81:1 228:1 229:1 231:1 232:1 #
-0.012096495365014641 1:1 4:1 12:1 16:1 28:1 41:1 42:1 43:1 66:1 88:1 89:1 90:1 91:1 92:1 93:1 96:1 106:1 #
-3.5891024868614405e-017 1:1 4:1 28:1 107:1 108:1 109:1 #
0.047508694228586709 4:1 8:1 141:1 236:1 237:1 238:1 #
0.043062902704459116 8:1 80:1 141:1 289:1 #
0.17224299985731401 1:1 4:1 9:1 15:1 23:1 26:1 28:1 29:1 64:1 160:1 161:1 162:1 163:1 164:1 #
-1 1:1 4:1 5:1 13:1 31:1 186:1 #
-0.077211417914802905 1:1 4:1 30:1 31:1 33:1 158:1 159:1 #
0.0078815407295174875 10:1 95:1 155:1 201:1 230:1 243:1 244:1 245:1 246:1 247:1 248:1 249:1 250:1 #
0.055824163091841461 8:1 201:1 280:1 281:1 #
-0.033821407340245406 1:1 4:1 9:1 15:1 16:1 34:1 129:1 130:1 #
0.011551847655989021 1:1 4:1 13:1 16:1 28:1 41:1 42:1 43:1 62:1 78:1 116:1 117:1 118:1 #
0.1547428957441041 1:1 4:1 5:1 31:1 59:1 186:1 #
0.0080800947764535346 48:1 145:1 160:1 208:1 209:1 210:1 211:1 212:1 213:1 214:1 215:1 216:1 217:1 218:1 219:1 220:1 221:1 222:1 223:1 224:1 225:1 226:1 227:1 #
-5.59681694801209e-005 1:1 4:1 9:1 15:1 16:1 17:1 26:1 27:1 28:1 #
-0.04284065802965073 1:1 4:1 9:1 15:1 17:1 53:1 64:1 133:1 160:1 161:1 162:1 163:1 164:1 167:1 168:1 169:1 #
-0.025486240063924213 1:1 4:1 9:1 15:1 17:1 19:1 21:1 22:1 64:1 160:1 161:1 162:1 163:1 164:1 165:1 166:1 #
-0.067794158915660652 1:1 4:1 16:1 23:1 31:1 41:1 42:1 43:1 45:1 59:1 #
-0.012489126783133003 8:1 16:1 117:1 141:1 190:1 228:1 230:1 233:1 255:1 256:1 257:1 282:1 #
-0.0097084312829689157 8:1 80:1 81:1 95:1 141:1 171:1 247:1 253:1 254:1 #
-0.032322472575344346 1:1 4:1 11:1 25:1 110:1 111:1 112:1 113:1 114:1 #
-0.0061414761926488056 8:1 48:1 141:1 177:1 190:1 230:1 247:1 295:1 296:1 297:1 298:1 299:1 #
0.047232218788639521 1:1 4:1 13:1 16:1 28:1 41:1 42:1 43:1 62:1 78:1 143:1 #
-0.0057394465354871933 1:1 4:1 13:1 16:1 17:1 41:1 42:1 43:1 62:1 97:1 136:1 137:1 138:1 139:1 #
-0.0097544784762959597 1:1 4:1 25:1 30:1 31:1 32:1 33:1 34:1 35:1 #
0.14601159034474362 1:1 4:1 16:1 27:1 41:1 42:1 43:1 45:1 48:1 49:1 59:1 #
0.026053352462299621 1:1 4:1 12:1 13:1 25:1 110:1 112:1 113:1 #
0.010058840284128824 1:1 4:1 13:1 16:1 28:1 41:1 42:1 43:1 62:1 66:1 94:1 95:1 128:1 #
0.0055094197016403446 1:1 4:1 12:1 16:1 17:1 41:1 42:1 43:1 62:1 66:1 68:1 74:1 75:1 76:1 77:1 #
0.17438349509524398 1:1 4:1 16:1 17:1 41:1 42:1 43:1 45:1 48:1 49:1 59:1 #
0.0001557722598049036 1:1 4:1 12:1 16:1 28:1 41:1 42:1 43:1 62:1 66:1 68:1 71:1 72:1 73:1 94:1 95:1 128:1 #
0.022123857211753167 1:1 4:1 9:1 15:1 16:1 23:1 24:1 25:1 #
0.022058464084432766 1:1 4:1 9:1 15:1 16:1 23:1 25:1 65:1 #
0.0067730143004543792 8:1 133:1 228:1 230:1 257:1 300:1 301:1 302:1 303:1 304:1 #
0.0065656896691006182 1:1 4:1 16:1 23:1 41:1 42:1 43:1 44:1 45:1 52:1 53:1 #
-0.037534270208485557 1:1 4:1 9:1 15:1 16:1 17:1 26:1 27:1 28:1 #
0.0043403456281833324 8:1 95:1 137:1 141:1 158:1 228:1 252:1 #
-0.06589752082204374 1:1 4:1 9:1 15:1 16:1 17:1 26:1 27:1 28:1 #
-0.027492488835504373 1:1 4:1 9:1 15:1 16:1 17:1 26:1 27:1 28:1 #
-0.090691522497804128 1:1 4:1 11:1 14:1 29:1 41:1 42:1 48:1 88:1 97:1 197:1 198:1 199:1 200:1 201:1 #
0.033249677249701945 1:1 2:1 3:1 4:1 5:1 6:1 7:1 8:1 9:1 10:1 11:1 13:1 #
0.0051981831055686947 1:1 4:1 12:1 16:1 28:1 41:1 42:1 43:1 62:1 68:1 78:1 116:1 117:1 118:1 #
-0.0030253343326940175 1:1 4:1 8:1 13:1 16:1 28:1 41:1 42:1 43:1 62:1 100:1 131:1 132:1 133:1 134:1 135:1 #
-0.014810368574901509 1:1 4:1 12:1 16:1 28:1 41:1 42:1 43:1 59:1 #
-0.0029402071849017331 1:1 4:1 13:1 16:1 29:1 31:1 41:1 42:1 43:1 62:1 78:1 79:1 80:1 81:1 82:1 #
0.038158751090581013 1:1 4:1 9:1 15:1 16:1 17:1 18:1 19:1 20:1 21:1 22:1 #
-1.0512673186819504e-005 1:1 4:1 9:1 15:1 16:1 17:1 26:1 27:1 28:1 #
